digraph Tree {
node [shape=box] ;
0 [label="X[0] <= 1.196\ngini = 0.461\nsamples = 25\nvalue = [16, 9]"] ;
1 [label="gini = 0.0\nsamples = 3\nvalue = [0, 3]"] ;
0 -> 1 [labeldistance=2.5, labelangle=45, headlabel="True"] ;
2 [label="X[3] <= 1.196\ngini = 0.397\nsamples = 22\nvalue = [16, 6]"] ;
0 -> 2 [labeldistance=2.5, labelangle=-45, headlabel="False"] ;
3 [label="gini = 0.0\nsamples = 10\nvalue = [10, 0]"] ;
2 -> 3 ;
4 [label="X[0] <= 1.196\ngini = 0.5\nsamples = 12\nvalue = [6, 6]"] ;
2 -> 4 ;
5 [label="gini = 0.0\nsamples = 4\nvalue = [0, 4]"] ;
4 -> 5 ;
6 [label="gini = 0.375\nsamples = 8\nvalue = [6, 2]"] ;
4 -> 6 ;
}